SVM-light Version V6.02
2 # kernel type
3 # kernel parameter -d 
1 # kernel parameter -g 
1 # kernel parameter -s 
1 # kernel parameter -r 
empty# kernel parameter -u 
3 # highest feature index 
96 # number of training documents 
31 # number of support vectors plus 1 
1.2921231 # threshold b, each following line is a SV (starting with alpha*y)
-36.555210865026545263845036970451 1:0.040520966 2:0.11384056 3:0.031193359 #
36.555210865026545263845036970451 1:0.068590619 2:0.080508225 3:0.10246436 #
-36.555210865026545263845036970451 1:0.11900037 2:0 3:0.16415389 #
36.555210865026545263845036970451 1:0.079002537 2:0.092089079 3:0 #
-36.555210865026545263845036970451 1:0.08375445 2:0.27969953 3:0 #
-36.555210865026545263845036970451 1:0.06773252 2:0.01073798 3:0.01792679 #
36.555210865026545263845036970451 1:0.090144068 2:0.086235128 3:0 #
24.039771134250386808162147644907 1:0.069756627 2:0.21885712 3:0.084929593 #
-36.555210865026545263845036970451 1:0.084107108 2:0.15764476 3:0.08271461 #
-36.555210865026545263845036970451 1:0.011799885 2:0.014564478 3:0.17500974 #
-36.555210865026545263845036970451 1:0.054834608 2:0.10133754 3:0.10966922 #
-36.555210865026545263845036970451 1:0.038775072 2:0.01211721 3:0.01211721 #
-36.555210865026545263845036970451 1:0.044530652 2:0.030829124 3:0.044530652 #
-36.555210865026545263845036970451 1:0.04238398 2:0.0089597842 3:0.0093700821 #
33.640142809444554927722492720932 1:0.084034987 2:0 3:0.13103652 #
29.29726356559793742917463532649 1:0.10695758 2:0.082031749 3:0 #
-36.555210865026545263845036970451 1:0.039566692 2:0.039566692 3:0.022420006 #
36.555210865026545263845036970451 1:0.05508158 2:0 3:0.14211731 #
36.555210865026545263845036970451 1:0.062407859 2:0.073919423 3:0.090144068 #
-36.555210865026545263845036970451 1:0.032281082 2:0.054283969 3:0.12925419 #
36.555210865026545263845036970451 1:0.069756627 2:0.12850818 3:0.071443133 #
-36.555210865026545263845036970451 1:0.04256288 2:0.070662066 3:0.0065944488 #
36.555210865026545263845036970451 1:0.074627332 2:0.1360804 3:0 #
36.555210865026545263845036970451 1:0.074627332 2:0 3:0.097672239 #
36.555210865026545263845036970451 1:0.082242362 2:0 3:0.094726585 #
36.555210865026545263845036970451 1:0.09965796 2:0.098852597 3:0 #
36.555210865026545263845036970451 1:0.083835416 2:0 3:0.12732004 #
-13.866755779239786861012362351175 1:0.043867439 2:0 3:0 #
36.555210865026545263845036970451 1:0.092179604 2:0.1020603 3:0 #
-36.555210865026545263845036970451 1:0.055149268 2:0.070924498 3:0 #
